digraph Tree {
node [shape=box] ;
0 [label="X[22] <= 0.5\ngini = 0.5749\nsamples = 101766\nvalue = [11357, 35545, 54864]"] ;
1 [label="X[20] <= 0.5\ngini = 0.5242\nsamples = 67630\nvalue = [5706, 20328, 41596]"] ;
0 -> 1 [labeldistance=2.5, labelangle=45, headlabel="True"] ;
2 [label="X[21] <= 0.5\ngini = 0.514\nsamples = 59085\nvalue = [4901, 16978, 37206]"] ;
1 -> 2 ;
3 [label="X[14] <= 60.0\ngini = 0.5076\nsamples = 55828\nvalue = [4564, 15639, 35625]"] ;
2 -> 3 ;
4 [label="X[19] <= 10.5\ngini = 0.4623\nsamples = 18812\nvalue = [1190, 4711, 12911]"] ;
3 -> 4 ;
5 [label="gini = 0.4066\nsamples = 6546\nvalue = [317, 1393, 4836]"] ;
4 -> 5 ;
6 [label="gini = 0.4884\nsamples = 12266\nvalue = [873, 3318, 8075]"] ;
4 -> 6 ;
7 [label="X[10] <= 0.5\ngini = 0.528\nsamples = 37016\nvalue = [3374, 10928, 22714]"] ;
3 -> 7 ;
8 [label="gini = 0.4775\nsamples = 9293\nvalue = [698, 2336, 6259]"] ;
7 -> 8 ;
9 [label="gini = 0.5423\nsamples = 27723\nvalue = [2676, 8592, 16455]"] ;
7 -> 9 ;
10 [label="X[19] <= 8.5\ngini = 0.5847\nsamples = 3257\nvalue = [337, 1339, 1581]"] ;
2 -> 10 ;
11 [label="X[13] <= 254.0\ngini = 0.5567\nsamples = 529\nvalue = [54, 173, 302]"] ;
10 -> 11 ;
12 [label="gini = 0.5035\nsamples = 286\nvalue = [17, 89, 180]"] ;
11 -> 12 ;
13 [label="gini = 0.6053\nsamples = 243\nvalue = [37, 84, 122]"] ;
11 -> 13 ;
14 [label="X[13] <= 246.5\ngini = 0.5867\nsamples = 2728\nvalue = [283, 1166, 1279]"] ;
10 -> 14 ;
15 [label="gini = 0.5857\nsamples = 1199\nvalue = [131, 470, 598]"] ;
14 -> 15 ;
16 [label="gini = 0.5845\nsamples = 1529\nvalue = [152, 696, 681]"] ;
14 -> 16 ;
17 [label="X[14] <= 60.0\ngini = 0.5735\nsamples = 8545\nvalue = [805, 3350, 4390]"] ;
1 -> 17 ;
18 [label="X[21] <= 1.5\ngini = 0.5433\nsamples = 2486\nvalue = [193, 867, 1426]"] ;
17 -> 18 ;
19 [label="X[29] <= 0.5\ngini = 0.5339\nsamples = 2311\nvalue = [176, 768, 1367]"] ;
18 -> 19 ;
20 [label="gini = 0.5059\nsamples = 1337\nvalue = [100, 386, 851]"] ;
19 -> 20 ;
21 [label="gini = 0.5594\nsamples = 974\nvalue = [76, 382, 516]"] ;
19 -> 21 ;
22 [label="X[12] <= 465.0\ngini = 0.5569\nsamples = 175\nvalue = [17, 99, 59]"] ;
18 -> 22 ;
23 [label="gini = 0.5442\nsamples = 147\nvalue = [16, 88, 43]"] ;
22 -> 23 ;
24 [label="gini = 0.5179\nsamples = 28\nvalue = [1, 11, 16]"] ;
22 -> 24 ;
25 [label="X[11] <= 85.5\ngini = 0.5826\nsamples = 6059\nvalue = [612, 2483, 2964]"] ;
17 -> 25 ;
26 [label="X[20] <= 4.5\ngini = 0.5215\nsamples = 288\nvalue = [29, 78, 181]"] ;
25 -> 26 ;
27 [label="gini = 0.5414\nsamples = 267\nvalue = [29, 77, 161]"] ;
26 -> 27 ;
28 [label="gini = 0.0907\nsamples = 21\nvalue = [0, 1, 20]"] ;
26 -> 28 ;
29 [label="X[15] <= 74.5\ngini = 0.5836\nsamples = 5771\nvalue = [583, 2405, 2783]"] ;
25 -> 29 ;
30 [label="gini = 0.5817\nsamples = 5406\nvalue = [541, 2210, 2655]"] ;
29 -> 30 ;
31 [label="gini = 0.5784\nsamples = 365\nvalue = [42, 195, 128]"] ;
29 -> 31 ;
32 [label="X[22] <= 1.5\ngini = 0.6228\nsamples = 34136\nvalue = [5651, 15217, 13268]"] ;
0 -> 32 [labeldistance=2.5, labelangle=-45, headlabel="False"] ;
33 [label="X[20] <= 0.5\ngini = 0.6036\nsamples = 19521\nvalue = [2523, 8167, 8831]"] ;
32 -> 33 ;
34 [label="X[21] <= 0.5\ngini = 0.6007\nsamples = 15519\nvalue = [1977, 6244, 7298]"] ;
33 -> 34 ;
35 [label="X[31] <= 0.5\ngini = 0.5981\nsamples = 13637\nvalue = [1711, 5373, 6553]"] ;
34 -> 35 ;
36 [label="gini = 0.602\nsamples = 10992\nvalue = [1418, 4437, 5137]"] ;
35 -> 36 ;
37 [label="gini = 0.5759\nsamples = 2645\nvalue = [293, 936, 1416]"] ;
35 -> 37 ;
38 [label="X[14] <= 70.0\ngini = 0.6091\nsamples = 1882\nvalue = [266, 871, 745]"] ;
34 -> 38 ;
39 [label="gini = 0.604\nsamples = 1051\nvalue = [152, 521, 378]"] ;
38 -> 39 ;
40 [label="gini = 0.6087\nsamples = 831\nvalue = [114, 350, 367]"] ;
38 -> 40 ;
41 [label="X[43] <= 0.5\ngini = 0.6038\nsamples = 4002\nvalue = [546, 1923, 1533]"] ;
33 -> 41 ;
42 [label="X[19] <= 48.0\ngini = 0.558\nsamples = 468\nvalue = [54, 271, 143]"] ;
41 -> 42 ;
43 [label="gini = 0.5541\nsamples = 461\nvalue = [53, 270, 138]"] ;
42 -> 43 ;
44 [label="gini = 0.449\nsamples = 7\nvalue = [1, 1, 5]"] ;
42 -> 44 ;
45 [label="X[19] <= 8.5\ngini = 0.6074\nsamples = 3534\nvalue = [492, 1652, 1390]"] ;
41 -> 45 ;
46 [label="gini = 0.5615\nsamples = 358\nvalue = [27, 147, 184]"] ;
45 -> 46 ;
47 [label="gini = 0.6098\nsamples = 3176\nvalue = [465, 1505, 1206]"] ;
45 -> 47 ;
48 [label="X[22] <= 4.5\ngini = 0.6293\nsamples = 14615\nvalue = [3128, 7050, 4437]"] ;
32 -> 48 ;
49 [label="X[14] <= 70.0\ngini = 0.6233\nsamples = 12599\nvalue = [2394, 6101, 4104]"] ;
48 -> 49 ;
50 [label="X[20] <= 1.5\ngini = 0.6112\nsamples = 6736\nvalue = [1314, 3491, 1931]"] ;
49 -> 50 ;
51 [label="gini = 0.6185\nsamples = 5806\nvalue = [1144, 2916, 1746]"] ;
50 -> 51 ;
52 [label="gini = 0.5447\nsamples = 930\nvalue = [170, 575, 185]"] ;
50 -> 52 ;
53 [label="X[20] <= 0.5\ngini = 0.6305\nsamples = 5863\nvalue = [1080, 2610, 2173]"] ;
49 -> 53 ;
54 [label="gini = 0.6336\nsamples = 4283\nvalue = [795, 1800, 1688]"] ;
53 -> 54 ;
55 [label="gini = 0.6104\nsamples = 1580\nvalue = [285, 810, 485]"] ;
53 -> 55 ;
56 [label="X[22] <= 7.5\ngini = 0.6186\nsamples = 2016\nvalue = [734, 949, 333]"] ;
48 -> 56 ;
57 [label="X[14] <= 80.0\ngini = 0.622\nsamples = 1560\nvalue = [516, 755, 289]"] ;
56 -> 57 ;
58 [label="gini = 0.6158\nsamples = 1353\nvalue = [471, 656, 226]"] ;
57 -> 58 ;
59 [label="gini = 0.6314\nsamples = 207\nvalue = [45, 99, 63]"] ;
57 -> 59 ;
60 [label="X[13] <= 356.5\ngini = 0.5811\nsamples = 456\nvalue = [218, 194, 44]"] ;
56 -> 60 ;
61 [label="gini = 0.5848\nsamples = 303\nvalue = [127, 145, 31]"] ;
60 -> 61 ;
62 [label="gini = 0.5365\nsamples = 153\nvalue = [91, 49, 13]"] ;
60 -> 62 ;
}